tree
version=v3
num_class=1
num_tree_per_iteration=1
label_index=0
max_feature_idx=15
objective=binary sigmoid:1
feature_names=Column_0 Column_1 Column_2 Column_3 Column_4 Column_5 Column_6 Column_7 Column_8 Column_9 Column_10 Column_11 Column_12 Column_13 Column_14 Column_15
feature_infos=[-6.2298849127015403:8.1751450279366811] [-3.0744295560870567:3.0106337759043833] [-1.2702126582928148:0.78726974847189368] [-4.2151166761193322:3.2605378230121258] [-1.8646747134737862:1.4527840626448294] [-2.0136437350865748:1.5313049315399645] [-1.6456759228162137:5.3157965114468135] [-3.8665400009548536:4.7677620885946235] [-2.0666937132875596:2.5565358047682434] [-1.4205684134359593:1.424354272086219] [-1.3975376362193628:1.4147870919714178] [-1.4106734362376634:1.3866603838554978] [-1.3834766856682432:1.4682979644493819] [-1.3434348967966112:1.3266469065251958] [-1.1301854876107995:1.4482906596642047] [-0.48045419858067423:2.0813638489457129]
tree_sizes=6674 6793

Tree=0
num_leaves=63
num_cat=0
split_feature=8 6 7 6 9 6 12 14 14 6 11 7 1 7 4 7 1 4 1 8 1 3 13 7 3 8 1 4 8 4 14 8 10 8 1 1 6 4 9 4 10 6 3 3 10 11 12 1 4 1 9 12 8 3 4 12 1 6 10 8 6 1
split_gain=9.31562 17.0083 12.5766 11.0317 11.6325 9.45124 8.86986 6.7222 6.72167 6.23433 5.53955 5.46649 5.45368 5.42586 6.31978 6.61617 5.41278 5.32869 18.7156 8.2421 6.9907 7.80421 6.16036 6.76576 7.57919 5.54269 4.88979 9.01094 7.67046 7.26148 7.3768 6.28917 5.84862 6.01344 7.28859 6.89529 5.55529 4.96261 8.56524 5.1517 5.60498 7.55974 4.80749 10.207 8.0421 7.73141 5.29074 6.26873 5.54003 5.23444 4.78431 6.71698 6.55279 4.88854 4.69314 4.67427 5.33802 4.66596 4.65951 4.64417 6.50699 4.41343
threshold=0.7976454881496039 -1.0777259247395148 0.40848241818054659 0.010070171527178097 0.35750826501540234 -0.83319189778982505 -0.31957813639543303 1.0000000180025095e-35 0.95584553512511872 -0.97179874255854337 0.47375783864832854 1.3110928482492914 0.030648868081015187 0.82388347909772874 -1.3559980107650842 -0.47114002302523789 -0.29525522473952359 0.96838266548284901 0.76010966628944854 0.26254861649990174 0.13220997326633252 0.66494467860724138 1.0716767824936164 1.2149258868618815 1.199955917702386 -0.36242653489403936 -0.10154237545533777 -0.74291354878803417 -1.2589269641665253 -0.44578278247441888 0.46340041058603249 0.68794405033944761 -1.303342618747763 -1.0096210028637811 0.49558308622002201 0.73257695907825437 0.15022648305652184 -0.15677220976899078 -0.96966623573135613 -1.0000000180025095e-35 -1.0000000180025095e-35 0.50773072291730137 -1.2685553594390635 -1.1910192338571719 -1.303342618747763 -0.8681389094220483 0.39522640108777701 -1.5783633697811885 -1.411925887161096 -1.4024842072847827 1.3290674300718883 1.282256622180199 1.7083159156711207 1.1787201429646117 1.3857647438623875 -0.033662404948099599 0.36709814355899534 -0.23960526785549757 0.3601653188998753 1.601120202266926 -0.29193498618027275 0.010072573369681934
decision_type=2 2 2 2 2 2 2 2 2 2 2 2 2 2 2 2 2 2 2 2 2 2 2 2 2 2 2 2 2 2 2 2 2 2 2 2 2 2 2 2 2 2 2 2 2 2 2 2 2 2 2 2 2 2 2 2 2 2 2 2 2 2
left_child=2 -2 5 7 11 8 17 9 61 -3 -6 13 16 14 -5 -16 -8 18 19 20 -4 -22 23 -19 -25 -24 27 42 -29 30 58 32 -28 36 55 -36 -34 -31 -39 -40 -41 -42 46 -44 -45 -46 47 -7 -48 -49 51 52 53 57 -14 56 -35 -9 -30 60 -11 -1
right_child=1 3 6 4 10 26 12 50 -10 59 -12 -13 54 -15 15 -17 -18 22 -20 -21 21 -23 25 24 -26 -27 31 28 29 37 -32 -33 33 34 35 -37 -38 38 39 40 41 -43 43 44 45 -47 48 49 -50 -51 -52 -53 -54 -55 -56 -57 -58 -59 -60 -61 -62 -63
leaf_value=0.038078663843152352 0.012943357336933171 0.0089422269134941945 0.052309317954639167 0.045584158159724789 0.0093807069598984723 0.022419718866130735 0.031043709252490427 0.041296691632525889 0.029614734101262221 0.031379938699838239 0.0269898790362402 0.013813168298550338 0.030106676366439145 0.051415765254615595 0.013456322775835604 0.034125812519845374 0.005062342866523073 0.03993511019346592 0.061528512478692121 0.010333924452081665 0.008942226913494191 0.042182387354371811 0.0038498791018445992 0.012402664036468447 0.041647119070299707 0.032949009454128028 0.012943357336933171 0.056032454204737486 0.063866835453429166 0.027646306483305298 0.034854309655765636 0.052084850609705725 0.047106855567835157 0.036378549817075723 0.05009671126886648 0.025446889910179959 0.026050508724060839 0.020531708140007082 0.057400362041810642 0.052309317954639181 0.015344035590996563 0.047498574630269748 0.011404461020225871 0.016102144513332358 0.049249911179249775 0.032115440615911581 0.05038983437681073 0.054493557888030189 0.031923078576323163 0.033512548950387043 0.020945618183811115 0.056545419643639919 0.022660388365284959 0.023422508445940002 0.01550818453144533 0.018511940915946171 0.012943357336933171 0.06152851247869208 0.041647119070299707 0.021390188230859891 0.052309317954639181 0.049561890159634872
leaf_weight=19.494490742683411 20.994066953659058 4.9985873699188224 7.7478104233741822 9.4973160028457624 18.244843900203708 14.245974004268644 5.2485167384147635 34.740182220935814 11.996609687805174 25.492795586585995 11.746680319309233 5.7483754754066458 91.474148869514465 6.4981635808944693 9.7472453713417035 16.995197057724003 8.2476691603660566 31.491100430488586 12.246539056301115 5.7483754754066458 4.9985873699188215 6.4981635808944702 5.4984461069107056 9.2473866343498212 5.7483754754066458 4.9985873699188215 6.9980223178863517 12.996327161788939 10.996892213821416 20.744137585163116 10.497033476829527 5.7483754754066458 16.245408952236179 17.495055794715885 10.497033476829531 7.9977397918701163 7.2479516863822928 7.2479516863822928 8.9974572658538801 7.7478104233741787 6.2482342123985308 5.4984461069107056 9.7472453713417035 9.4973160028457624 13.496185898780821 47.986438751220703 19.494490742683414 6.4981635808944693 9.7472453713417035 17.744985163211826 4.9985873699188224 9.7472453713417035 8.7475278973579389 5.2485167384147635 9.7472453713417035 24.243148744106293 4.9985873699188224 5.2485167384147706 5.7483754754066458 11.246821582317351 7.7478104233741787 42.737922012805939
leaf_count=78 84 20 31 38 73 57 21 139 48 102 47 23 366 26 39 68 33 126 49 23 20 26 22 37 23 20 28 52 44 83 42 23 65 70 42 32 29 29 36 31 25 22 39 38 54 192 78 26 39 71 20 39 35 21 39 97 20 21 23 45 31 171
internal_value=0.0336216 0.030055 0.0348543 0.0318814 0.0260681 0.0368456 0.0308432 0.0357405 0.0433223 0.0301199 0.0162776 0.032124 0.0271086 0.0345869 0.0315693 0.0265921 0.0151662 0.03539 0.0412735 0.0313486 0.0376257 0.0277301 0.0315451 0.0346699 0.023613 0.0177066 0.0354587 0.0369868 0.041737 0.039518 0.0479991 0.0317664 0.0305462 0.0319346 0.0288099 0.0394373 0.0406107 0.0354276 0.039944 0.0448822 0.0391046 0.0303951 0.033892 0.0305954 0.0332308 0.0358767 0.0378212 0.032949 0.0442342 0.0391363 0.0397873 0.0412651 0.0385061 0.0415702 0.0287009 0.0246044 0.0311707 0.0439521 0.0562392 0.0324994 0.0362582 0.0459647
internal_weight=0 217.688 629.822 196.694 78.4778 420.881 208.941 118.217 74.229 49.486 29.9915 48.4863 114.718 42.7379 36.2398 26.7424 13.4962 94.2234 37.2395 24.9929 19.2446 11.4968 56.9839 46.4869 14.9958 10.497 346.652 245.181 96.7227 83.7263 27.2423 101.471 95.7229 88.7249 65.2316 18.4948 23.4934 56.484 35.7399 28.4919 19.4945 11.7467 148.458 80.7272 70.9799 61.4826 67.7309 38.4891 29.2417 24.2431 68.7306 63.732 53.9847 45.2372 101.221 46.7368 22.4936 39.9887 16.7453 44.4874 33.2406 62.2324
internal_count=3391 871 2520 787 314 1684 836 473 297 198 120 194 459 171 145 107 54 377 149 100 77 46 228 186 60 42 1387 981 387 335 109 406 383 355 261 74 94 226 143 114 78 47 594 323 284 246 271 154 117 97 275 255 216 181 405 187 90 160 67 178 133 249
is_linear=0
shrinkage=1


Tree=1
num_leaves=63
num_cat=0
split_feature=8 6 7 6 9 6 12 15 5 8 1 6 9 5 11 6 11 1 1 4 1 5 7 8 1 3 6 6 4 11 8 1 4 8 4 13 8 10 8 1 1 6 5 3 11 4 12 4 12 1 8 6 12 7 6 1 8 11 5 1 5 6
split_gain=8.94687 16.3296 12.0795 10.5943 11.1682 9.07948 8.51776 6.45786 5.97907 5.87718 9.63193 9.2633 10.0815 5.46438 5.36383 5.55376 5.3176 5.23621 5.19598 5.11901 17.9885 8.26744 12.0437 7.91388 6.71636 7.49342 6.68793 5.41631 5.1189 5.09193 5.39491 4.69667 8.65673 7.37254 6.97739 6.81332 6.04197 5.61529 5.77559 6.99933 6.62425 5.33671 5.12234 6.55506 4.73188 4.62517 5.84375 4.50583 4.48754 5.12539 4.40164 4.39652 4.39202 5.0331 4.29156 4.24166 5.96699 5.26954 8.70057 4.95626 5.82088 4.16617
threshold=0.7976454881496039 -1.0777259247395148 0.40848241818054659 0.010070171527178097 0.35750826501540234 -0.83319189778982505 -0.31957813639543303 1.0000000180025095e-35 -1.0029719964365336 1.601120202266926 -0.58062658480602147 -0.29193498618027275 1.3290674300718883 -1.5277853480446404 -0.62797125335278448 -0.75649329313884239 0.47375783864832854 0.030648868081015187 -0.29525522473952359 0.96838266548284901 0.76010966628944854 1.354029718307914 1.2149258868618815 0.26254861649990174 0.13220997326633252 0.66494467860724138 -0.93665401921525537 -0.40286272017962826 1.1426381425369825 0.33857287659857288 1.2814524875758762 -0.10154237545533777 -0.74291354878803417 -1.2589269641665253 -0.44578278247441888 1.0716767824936164 0.68794405033944761 -1.303342618747763 -1.0096210028637811 0.49558308622002201 0.73257695907825437 0.15022648305652184 -0.19892842033912975 -0.16112563888018425 -0.3625859289807391 -1.6612074692775973 0.39522640108777701 1.3857647438623875 -0.033662404948099599 0.36709814355899534 -0.25775533118889954 -0.6683145483977676 -0.17662027067176631 -0.026707758788592769 0.76719597501484083 0.010072573369681934 -0.87612205915355135 0.33857287659857288 0.28000550523135287 0.62589741639243435 0.68821543941156871 -0.56069703884156785
decision_type=2 2 2 2 2 2 2 2 2 2 2 2 2 2 2 2 2 2 2 2 2 2 2 2 2 2 2 2 2 2 2 2 2 2 2 2 2 2 2 2 2 2 2 2 2 2 2 2 2 2 2 2 2 2 2 2 2 2 2 2 2 2
left_child=2 8 5 9 13 7 19 55 -2 11 -11 12 -3 -5 -12 -16 -6 18 -8 20 23 22 26 24 -4 -26 -21 28 -28 52 -31 32 45 -34 35 44 37 -33 41 48 -41 61 -36 -44 -35 46 -7 -19 49 50 -40 -47 -15 -54 -18 -1 57 58 -57 -58 -61 -39
right_child=1 3 6 4 16 31 17 -9 -10 10 14 -13 -14 29 15 -17 54 47 -20 21 -22 -23 -24 -25 25 -27 27 -29 -30 30 -32 36 33 34 42 -37 -38 38 39 40 -42 -43 43 -45 -46 51 -48 -49 -50 -51 -52 -53 53 -55 -56 56 59 -59 -60 60 -62 -63
leaf_value=0.0043683078551271142 -0.033201432825269737 0.0035835850233494233 0.018321418444418609 0.017308108074671862 -0.023749777770829372 0.00092227613091202176 -0.00252619441175454 -0.0039264449356679158 -0.011459344668346754 0.014575098689635092 -0.027678150466112449 0.017605411352373666 -0.025231188100176025 0.011489195561050864 -0.01800984554449658 0.0050490517196321747 -0.020543506169995628 -0.0034443983826351263 -0.02798021316191044 -0.019899064458212511 0.027367131565943274 0.010569600438665965 -0.025171599427519085 -0.022815980434061113 -0.024179325346588565 0.0083909773187595058 -0.00072669732499327773 -0.0042079248839991664 0.026428295985294441 0.0006870750448112723 -0.022097510450842402 -0.020259713684244157 0.021973806253271708 0.0069963610808974367 -0.0054326460499051444 -0.0037750860074189231 0.018101243519727684 -0.00094248586228267328 0.011908026812664438 0.016151261372269157 -0.008010205967390981 -0.0074187919653203272 0.016603877149546347 -0.0012454087193695406 0.026883372545770362 0.016384695061158021 0.019538620739130694 -0.017747122824238289 -0.014804484390889714 -0.020259713684244157 -0.0082302139811274537 -0.0023406283555842768 -0.017679893496573292 0.0053804416506652766 0.0039053902275317637 0.035394329310402227 0.036364621911907424 -0.0048649887117282126 0.0034555311775232404 -0.00099164324604219156 0.026525248499768918 0.020464734597677354
leaf_weight=19.49293327331543 8.4996438324451464 64.977126240730286 7.7447011321783128 5.4972624927759162 18.249598607420925 19.744913101196293 5.248735472559928 11.997369289398192 12.499476224184034 7.2479454129934338 6.2490459382534089 17.738204970955849 5.2492303103208533 10.746976226568224 7.9984373897314134 8.7470896393060595 4.9990895390510541 91.4792700111866 8.2499473839998227 5.7478387057781211 12.238413140177725 15.245950445532797 10.498451024293898 5.7498464584350577 4.9999001622199994 6.4971093833446503 4.9982045590877533 14.245170325040821 6.2476042956113815 7.247433319687846 9.7476964592933637 6.9997066855430594 12.98980128765106 7.4949265569448533 23.241836249828339 6.4980264306068412 5.7461021691560736 5.4969499111175582 9.4968573451042211 10.493414819240572 7.9987049102783194 7.2487701475620261 14.993990093469618 18.243268921971321 13.240156620740889 5.2479441463947287 10.243943661451338 9.7494136244058591 24.247922942042351 4.9997904896736136 7.9973535537719735 113.21525666117668 6.9984234869480124 8.2473168820142728 6.7487708777189255 5.4966237246990231 7.4953959882259396 7.7452425211668006 8.9944751858711225 4.9969306588172895 7.995089054107666 10.744038462638855
leaf_count=78 34 260 31 22 73 79 21 48 50 29 25 71 21 43 32 35 20 366 33 23 49 61 42 23 20 26 20 57 25 29 39 28 52 30 93 26 23 22 38 42 32 29 60 73 53 21 41 39 97 20 32 453 28 33 27 22 30 31 36 20 32 43
internal_value=0 -0.00349523 0.00120821 -0.00170541 -0.00740193 0.00315991 -0.00272282 0.00950868 -0.0202597 0.00207675 -0.00552893 0.00469161 0.00142976 -0.00146759 -0.0118658 -0.00596494 -0.0169936 -0.00638217 -0.0180828 0.00173332 0.00750091 -0.00203493 -0.00663917 -0.00222762 0.00392464 -0.00577342 -0.000410959 0.00398332 0.0143592 -0.00386861 -0.0123812 0.0018006 0.00329837 0.00795491 0.00577956 0.0140949 -0.00181805 -0.00301377 -0.00165318 -0.00471522 0.0057003 0.00685047 0.0017701 0.00680676 0.019695 0.000265095 0.00728146 -0.0048219 -0.00883582 -0.00240177 0.00270197 -0.00151109 0.00169728 -0.0052052 -0.0064984 0.0120994 0.0156267 0.00845236 0.0155702 0.0234136 0.0159418 0.0132192
internal_weight=0 217.689 629.778 196.69 78.4826 420.838 208.941 74.2141 20.9991 118.207 30.2425 87.9646 70.2264 48.4851 22.9946 16.7455 29.9975 114.727 13.4987 94.2132 37.23 56.9832 41.7373 24.9916 19.2417 11.497 31.2388 25.491 11.2458 42.9878 16.9951 346.624 245.154 96.702 83.7122 27.2331 101.47 95.7235 88.7238 65.234 18.4921 23.4898 56.4791 33.2373 20.7351 148.452 29.9889 101.229 46.7419 22.494 17.4942 118.463 25.9927 15.2457 11.7479 62.2167 42.7238 22.2363 14.4911 20.4874 12.992 16.241
internal_count=3391 871 2520 787 314 1684 836 297 84 473 121 352 281 194 92 67 120 459 54 377 149 228 167 100 77 46 125 102 45 172 68 1387 981 387 335 109 406 383 355 261 74 94 226 133 83 594 120 405 187 90 70 474 104 61 47 249 171 89 58 82 52 65
is_linear=0
shrinkage=0.02


end of trees

feature_importances:
Column_1=22
Column_6=19
Column_8=17
Column_4=14
Column_7=8
Column_12=8
Column_3=7
Column_11=7
Column_5=6
Column_9=5
Column_10=5
Column_14=3
Column_13=2
Column_15=1

parameters:
[boosting: gbdt]
[objective: binary]
[metric: binary_logloss]
[tree_learner: serial]
[device_type: cpu]
[data: ]
[valid: ]
[num_iterations: 400]
[learning_rate: 0.02]
[num_leaves: 63]
[num_threads: 0]
[deterministic: 0]
[force_col_wise: 0]
[force_row_wise: 0]
[histogram_pool_size: -1]
[max_depth: -1]
[min_data_in_leaf: 20]
[min_sum_hessian_in_leaf: 0.001]
[bagging_fraction: 1]
[pos_bagging_fraction: 1]
[neg_bagging_fraction: 1]
[bagging_freq: 0]
[bagging_seed: 3]
[feature_fraction: 0.9]
[feature_fraction_bynode: 1]
[feature_fraction_seed: 2]
[extra_trees: 0]
[extra_seed: 6]
[early_stopping_round: 0]
[first_metric_only: 0]
[max_delta_step: 0]
[lambda_l1: 0]
[lambda_l2: 0]
[linear_lambda: 0]
[min_gain_to_split: 0]
[drop_rate: 0.1]
[max_drop: 50]
[skip_drop: 0.5]
[xgboost_dart_mode: 0]
[uniform_drop: 0]
[drop_seed: 4]
[top_rate: 0.2]
[other_rate: 0.1]
[min_data_per_group: 100]
[max_cat_threshold: 32]
[cat_l2: 10]
[cat_smooth: 10]
[max_cat_to_onehot: 4]
[top_k: 20]
[monotone_constraints: ]
[monotone_constraints_method: basic]
[monotone_penalty: 0]
[feature_contri: ]
[forcedsplits_filename: ]
[refit_decay_rate: 0.9]
[cegb_tradeoff: 1]
[cegb_penalty_split: 0]
[cegb_penalty_feature_lazy: ]
[cegb_penalty_feature_coupled: ]
[path_smooth: 0]
[interaction_constraints: ]
[verbosity: 1]
[saved_feature_importance_type: 0]
[linear_tree: 0]
[max_bin: 255]
[max_bin_by_feature: ]
[min_data_in_bin: 3]
[bin_construct_sample_cnt: 200000]
[data_random_seed: 1]
[is_enable_sparse: 1]
[enable_bundle: 1]
[use_missing: 1]
[zero_as_missing: 0]
[feature_pre_filter: 1]
[pre_partition: 0]
[two_round: 0]
[header: 0]
[label_column: ]
[weight_column: ]
[group_column: ]
[ignore_column: ]
[categorical_feature: ]
[forcedbins_filename: ]
[precise_float_parser: 0]
[objective_seed: 5]
[num_class: 1]
[is_unbalance: 0]
[scale_pos_weight: 1]
[sigmoid: 1]
[boost_from_average: 1]
[reg_sqrt: 0]
[alpha: 0.9]
[fair_c: 1]
[poisson_max_delta_step: 0.7]
[tweedie_variance_power: 1.5]
[lambdarank_truncation_level: 30]
[lambdarank_norm: 1]
[label_gain: ]
[eval_at: ]
[multi_error_top_k: 1]
[auc_mu_weights: ]
[num_machines: 1]
[local_listen_port: 12400]
[time_out: 120]
[machine_list_filename: ]
[machines: ]
[gpu_platform_id: -1]
[gpu_device_id: -1]
[gpu_use_dp: 0]
[num_gpu: 1]

end of parameters

pandas_categorical:null
